Language model created by QuickLM on Thu Oct  8 02:34:32 EDT 2015
Copyright (c) 1996-2010 Carnegie Mellon University and Alexander I. Rudnicky

The model is in standard ARPA format, designed by Doug Paul while he was at MITRE.

The code that was used to produce this language model is available in Open Source.
Please visit http://www.speech.cs.cmu.edu/tools/ for more information

The (fixed) discount mass is 0.5. The backoffs are computed using the ratio method.
This model based on a corpus of 22 sentences and 51 words

\data\
ngram 1=51
ngram 2=89
ngram 3=79

\1-grams:
-1.0658 </s> -0.3010
-1.0658 <s> -0.2620
-2.4082 AA -0.2925
-1.8062 AH -0.2890
-2.4082 AO -0.2925
-2.4082 AW -0.2620
-2.4082 AY -0.2907
-1.9311 B -0.2907
-2.4082 BE -0.2959
-2.4082 BEING -0.2959
-2.4082 BUT -0.2959
-2.1072 CH -0.2620
-2.1072 D -0.2450
-2.4082 DH -0.2620
-2.4082 DID -0.2976
-2.1072 ER -0.2959
-2.1072 EY -0.2601
-2.4082 F -0.2976
-2.4082 FIRST -0.2993
-2.1072 HH -0.2890
-1.4540 IH -0.2675
-2.4082 IN -0.2855
-2.4082 IS -0.2855
-2.4082 IT -0.2855
-2.1072 IY -0.2450
-2.4082 K -0.2620
-2.4082 ME -0.2620
-1.7093 N -0.2564
-2.4082 NAOMI -0.2925
-2.4082 NG -0.2620
-2.4082 NOW -0.2925
-2.4082 OF -0.2942
-2.4082 OH -0.2993
-2.4082 ON -0.2993
-2.4082 ON(2) -0.2993
-2.4082 R -0.2993
-2.4082 RIGHT -0.2993
-2.1072 S -0.2872
-2.4082 SAY -0.2976
-1.6301 T -0.2620
-2.4082 TH -0.2620
-2.4082 V -0.2620
-1.5631 W -0.2748
-2.4082 WHAT -0.2890
-2.4082 WHAT(2) -0.2976
-2.4082 WHICH -0.2890
-2.4082 WHICH(2) -0.2976
-2.4082 WITH -0.2890
-2.4082 WITH(2) -0.2890
-2.4082 WORK -0.2890
-2.4082 Z -0.2620

\2-grams:
-1.6435 <s> BE 0.0000
-1.6435 <s> BEING 0.0000
-1.6435 <s> BUT 0.0000
-1.6435 <s> DID 0.0000
-1.6435 <s> FIRST 0.0000
-1.6435 <s> IN 0.0000
-1.6435 <s> IS 0.0000
-1.6435 <s> IT 0.0000
-1.6435 <s> NAOMI 0.0000
-1.6435 <s> NOW 0.0000
-1.6435 <s> OF 0.0000
-1.6435 <s> ON 0.0000
-1.6435 <s> ON(2) 0.0000
-1.6435 <s> RIGHT 0.0000
-1.6435 <s> SAY 0.0000
-1.6435 <s> WHAT 0.0000
-1.6435 <s> WHAT(2) 0.0000
-1.6435 <s> WHICH 0.0000
-1.6435 <s> WHICH(2) 0.0000
-1.6435 <s> WITH 0.0000
-1.6435 <s> WITH(2) 0.0000
-1.6435 <s> WORK 0.0000
-0.3010 AA N -0.1461
-0.4260 AH T 0.0000
-0.9031 AH V 0.0000
-0.3010 AO N -0.1461
-0.3010 AW </s> -0.3010
-0.3010 AY T 0.0000
-0.7782 B AH -0.0969
-0.4771 B IY 0.0000
-0.3010 BE B -0.1249
-0.3010 BEING B -0.1249
-0.3010 BUT B -0.2218
-0.3010 CH </s> -0.3010
-0.6021 D </s> -0.3010
-0.6021 D IH -0.2762
-0.3010 DH </s> -0.3010
-0.3010 DID D -0.1761
-0.6021 ER K 0.0000
-0.6021 ER S -0.1761
-0.6021 EY </s> -0.3010
-0.6021 EY OH 0.0000
-0.3010 F ER -0.1761
-0.3010 FIRST F 0.0000
-0.3010 HH W -0.0580
-0.9542 IH CH 0.0000
-1.2553 IH D -0.1761
-1.2553 IH DH 0.0000
-1.2553 IH N -0.1461
-1.2553 IH NG 0.0000
-1.2553 IH T 0.0000
-1.2553 IH TH 0.0000
-1.2553 IH Z 0.0000
-0.3010 IN IH -0.2762
-0.3010 IS IH -0.2762
-0.3010 IT IH -0.2762
-0.6021 IY </s> -0.3010
-0.6021 IY IH -0.2762
-0.3010 K </s> -0.3010
-0.3010 ME </s> -0.3010
-0.5229 N </s> -0.3010
-1.0000 N AW 0.0000
-1.0000 N EY -0.1761
-0.3010 NAOMI N -0.2553
-0.3010 NG </s> -0.3010
-0.3010 NOW N -0.2553
-0.3010 OF AH -0.2430
-0.3010 OH ME 0.0000
-0.3010 ON AA 0.0000
-0.3010 ON(2) AO 0.0000
-0.3010 R AY 0.0000
-0.3010 RIGHT R 0.0000
-0.6021 S EY -0.1761
-0.6021 S T 0.0000
-0.3010 SAY S -0.1761
-0.3010 T </s> -0.3010
-0.3010 TH </s> -0.3010
-0.3010 V </s> -0.3010
-0.8451 W AH -0.0969
-1.1461 W ER -0.1761
-0.5441 W IH -0.1919
-0.3010 WHAT W -0.2341
-0.3010 WHAT(2) HH 0.0000
-0.3010 WHICH W -0.1549
-0.3010 WHICH(2) HH 0.0000
-0.3010 WITH W -0.1549
-0.3010 WITH(2) W -0.1549
-0.3010 WORK W -0.2688
-0.3010 Z </s> -0.3010

\3-grams:
-0.3010 <s> BE B
-0.3010 <s> BEING B
-0.3010 <s> BUT B
-0.3010 <s> DID D
-0.3010 <s> FIRST F
-0.3010 <s> IN IH
-0.3010 <s> IS IH
-0.3010 <s> IT IH
-0.3010 <s> NAOMI N
-0.3010 <s> NOW N
-0.3010 <s> OF AH
-0.3010 <s> ON AA
-0.3010 <s> ON(2) AO
-0.3010 <s> RIGHT R
-0.3010 <s> SAY S
-0.3010 <s> WHAT W
-0.3010 <s> WHAT(2) HH
-0.3010 <s> WHICH W
-0.3010 <s> WHICH(2) HH
-0.3010 <s> WITH W
-0.3010 <s> WITH(2) W
-0.3010 <s> WORK W
-0.3010 AA N </s>
-0.3010 AH T </s>
-0.3010 AH V </s>
-0.3010 AO N </s>
-0.3010 AY T </s>
-0.3010 B AH T
-0.6021 B IY </s>
-0.6021 B IY IH
-0.3010 BE B IY
-0.3010 BEING B IY
-0.3010 BUT B AH
-0.3010 D IH D
-0.3010 DID D IH
-0.3010 ER K </s>
-0.3010 ER S T
-0.3010 EY OH ME
-0.3010 F ER S
-0.3010 FIRST F ER
-0.6021 HH W AH
-0.6021 HH W IH
-0.3010 IH CH </s>
-0.3010 IH D </s>
-0.3010 IH DH </s>
-0.3010 IH N </s>
-0.3010 IH NG </s>
-0.3010 IH T </s>
-0.3010 IH TH </s>
-0.3010 IH Z </s>
-0.3010 IN IH N
-0.3010 IS IH Z
-0.3010 IT IH T
-0.3010 IY IH NG
-0.3010 N AW </s>
-0.3010 N EY OH
-0.3010 NAOMI N EY
-0.3010 NOW N AW
-0.3010 OF AH V
-0.3010 OH ME </s>
-0.3010 ON AA N
-0.3010 ON(2) AO N
-0.3010 R AY T
-0.3010 RIGHT R AY
-0.3010 S EY </s>
-0.3010 S T </s>
-0.3010 SAY S EY
-0.3010 W AH T
-0.3010 W ER K
-0.6021 W IH CH
-0.9031 W IH DH
-0.9031 W IH TH
-0.3010 WHAT W AH
-0.3010 WHAT(2) HH W
-0.3010 WHICH W IH
-0.3010 WHICH(2) HH W
-0.3010 WITH W IH
-0.3010 WITH(2) W IH
-0.3010 WORK W ER

\end\
